{
    "layers": [
        {
            "num_inputs": 16,
            "num_outputs": 32,
            "weights": [
                0.96337890625,
                0.47900390625,
                0.2264404296875,
                -0.438720703125,
                -0.65283203125,
                0.351318359375,
                -0.537109375,
                -0.3994140625,
                0.394287109375,
                0.1512451171875,
                -0.06439208984375,
                -0.3271484375,
                -0.269287109375,
                0.48291015625,
                -0.465576171875,
                -0.380859375,
                -1.041015625,
                0.280517578125,
                0.403076171875,
                1.171875,
                -0.83154296875,
                0.6875,
                -0.076171875,
                -0.051666259765625,
                -0.67578125,
                0.65771484375,
                -1.0576171875,
                0.3984375,
                0.0955810546875,
                -0.315673828125,
                -1.060546875,
                0.34521484375,
                -0.427734375,
                0.37841796875,
                -1.0703125,
                0.7451171875,
                1.4970703125,
                -1.1962890625,
                0.4228515625,
                0.591796875,
                -0.1900634765625,
                -0.7607421875,
                -0.315185546875,
                -0.5693359375,
                -0.21630859375,
                -0.1121826171875,
                0.44482421875,
                -0.404296875,
                -0.1378173828125,
                -0.2314453125,
                -0.432373046875,
                0.5615234375,
                1.0517578125,
                -1.0634765625,
                -0.0684814453125,
                -0.27783203125,
                -0.307861328125,
                -0.44970703125,
                -0.057861328125,
                -1.01953125,
                0.11767578125,
                -0.609375,
                0.5400390625,
                0.323974609375,
                -0.434814453125,
                0.0202484130859375,
                0.6552734375,
                -0.2919921875,
                0.20166015625,
                0.7626953125,
                0.50390625,
                -0.888671875,
                0.79833984375,
                -0.509765625,
                0.032989501953125,
                -0.82177734375,
                -0.317138671875,
                0.1734619140625,
                -0.59130859375,
                -0.326171875,
                -1.044921875,
                -0.78173828125,
                -0.76708984375,
                -0.81640625,
                0.8037109375,
                -0.48779296875,
                0.12200927734375,
                0.156494140625,
                -0.1661376953125,
                -0.03363037109375,
                -0.09881591796875,
                0.338134765625,
                -0.27197265625,
                -0.2457275390625,
                -0.050384521484375,
                0.0733642578125,
                0.4228515625,
                -0.54931640625,
                1.287109375,
                -1.2216796875,
                -0.09442138671875,
                -0.0499267578125,
                0.189697265625,
                0.1717529296875,
                -0.5546875,
                0.039459228515625,
                0.488037109375,
                0.28564453125,
                -0.06964111328125,
                -0.054443359375,
                0.2139892578125,
                0.26220703125,
                0.294677734375,
                -0.31005859375,
                0.035614013671875,
                -0.603515625,
                0.351318359375,
                -0.2010498046875,
                0.7529296875,
                0.1038818359375,
                0.73974609375,
                0.358642578125,
                0.4873046875,
                0.234619140625,
                -0.2474365234375,
                0.380859375,
                -0.66650390625,
                -0.2108154296875,
                0.77001953125,
                0.09912109375,
                0.332763671875,
                0.76025390625,
                -0.2408447265625,
                -0.1053466796875,
                -0.438232421875,
                -0.67822265625,
                -0.17138671875,
                0.6826171875,
                0.70556640625,
                -0.2364501953125,
                0.10882568359375,
                0.03997802734375,
                0.2493896484375,
                0.79638671875,
                -0.448974609375,
                0.8642578125,
                -0.385009765625,
                0.052825927734375,
                -0.72314453125,
                -0.86181640625,
                -1.521484375,
                0.197509765625,
                -0.3349609375,
                -0.038818359375,
                -0.54150390625,
                0.52783203125,
                0.5966796875,
                0.60400390625,
                0.004680633544921875,
                -0.4462890625,
                0.54296875,
                0.329833984375,
                0.19287109375,
                0.66015625,
                0.34521484375,
                -0.47607421875,
                -0.046112060546875,
                -0.484619140625,
                0.8046875,
                -1.072265625,
                -0.65673828125,
                -0.95361328125,
                0.06561279296875,
                -0.638671875,
                0.47412109375,
                -0.61083984375,
                -0.20361328125,
                0.344970703125,
                0.190673828125,
                -0.5498046875,
                -0.66162109375,
                -0.344970703125,
                -1.087890625,
                -1.2333984375,
                0.85595703125,
                -0.51611328125,
                -0.390869140625,
                -0.91748046875,
                0.306396484375,
                -0.6435546875,
                0.0217742919921875,
                -0.158203125,
                -1.0615234375,
                1.330078125,
                -0.1942138671875,
                -0.10150146484375,
                -0.493896484375,
                -0.01024627685546875,
                -0.88818359375,
                -0.059722900390625,
                -0.48974609375,
                -0.430419921875,
                0.367919921875,
                0.0198822021484375,
                -0.5927734375,
                0.12261962890625,
                0.1571044921875,
                0.2459716796875,
                0.433837890625,
                0.0038852691650390625,
                0.476318359375,
                -0.29150390625,
                1.146484375,
                0.6669921875,
                -1.1279296875,
                0.8837890625,
                0.4267578125,
                0.12939453125,
                -0.1334228515625,
                0.625,
                0.1361083984375,
                0.1126708984375,
                -0.006618499755859375,
                0.55029296875,
                -0.17431640625,
                0.611328125,
                -0.9560546875,
                0.460205078125,
                0.247314453125,
                0.1453857421875,
                -0.60791015625,
                -0.84130859375,
                0.439208984375,
                -0.95947265625,
                -0.6904296875,
                -0.19580078125,
                -0.0341796875,
                -0.2320556640625,
                -0.38525390625,
                -0.145263671875,
                0.65966796875,
                -0.61962890625,
                0.351318359375,
                -0.52783203125,
                0.354736328125,
                0.404541015625,
                -0.348388671875,
                -0.76220703125,
                -0.5712890625,
                -0.1298828125,
                0.63427734375,
                0.35009765625,
                0.197021484375,
                0.0787353515625,
                0.0285186767578125,
                -0.34228515625,
                0.369384765625,
                1.0400390625,
                0.227783203125,
                -0.7646484375,
                0.01306915283203125,
                -0.2213134765625,
                -0.79150390625,
                0.296875,
                0.587890625,
                -0.119140625,
                -0.20556640625,
                0.1568603515625,
                -0.248046875,
                -0.00853729248046875,
                0.03680419921875,
                0.1004638671875,
                -0.61328125,
                -0.3408203125,
                -0.36767578125,
                -0.385986328125,
                0.49169921875,
                -1.0048828125,
                0.152099609375,
                0.873046875,
                0.48486328125,
                0.57568359375,
                0.62939453125,
                -0.1776123046875,
                -0.37158203125,
                0.6279296875,
                0.83154296875,
                -0.6953125,
                0.052520751953125,
                0.669921875,
                0.399658203125,
                0.005977630615234375,
                0.149658203125,
                -0.324951171875,
                -0.234130859375,
                -1.1640625,
                -1.0361328125,
                -0.07781982421875,
                0.7373046875,
                0.30615234375,
                -0.238525390625,
                0.1995849609375,
                -0.42431640625,
                0.01531982421875,
                0.44384765625,
                -0.62255859375,
                -0.744140625,
                -1.0009765625,
                0.78515625,
                -0.9619140625,
                -0.0018129348754882812,
                -0.08251953125,
                -0.63818359375,
                0.431396484375,
                -0.638671875,
                -0.14013671875,
                0.166259765625,
                0.1998291015625,
                -0.97119140625,
                0.06756591796875,
                -0.345458984375,
                0.1080322265625,
                -0.72265625,
                -0.239990234375,
                -0.052825927734375,
                0.939453125,
                0.83154296875,
                0.2401123046875,
                -0.61865234375,
                -0.30419921875,
                -0.42919921875,
                0.49853515625,
                -0.470458984375,
                -0.08489990234375,
                0.44287109375,
                0.0233001708984375,
                0.08966064453125,
                -0.8984375,
                0.8916015625,
                -0.42333984375,
                0.128173828125,
                -0.056396484375,
                -0.2060546875,
                -0.61669921875,
                0.55908203125,
                -1.037109375,
                -0.464599609375,
                -1.486328125,
                0.2403564453125,
                -0.1943359375,
                0.09808349609375,
                -0.5048828125,
                -1.013671875,
                0.228759765625,
                0.398681640625,
                -0.82373046875,
                0.416015625,
                -0.70458984375,
                0.46875,
                1.126953125,
                -0.68359375,
                0.7158203125,
                0.01114654541015625,
                0.5986328125,
                -0.0562744140625,
                -0.139404296875,
                -0.68896484375,
                -0.3486328125,
                0.8154296875,
                0.030364990234375,
                0.2486572265625,
                -0.6201171875,
                0.16259765625,
                0.289794921875,
                -0.5263671875,
                -0.86767578125,
                0.53466796875,
                0.0977783203125,
                0.18017578125,
                0.443359375,
                0.449462890625,
                -0.161865234375,
                0.296630859375,
                0.409912109375,
                0.46044921875,
                1.5361328125,
                0.8291015625,
                0.5537109375,
                0.740234375,
                -0.57568359375,
                0.150146484375,
                -0.2548828125,
                0.5126953125,
                -0.0273895263671875,
                -0.7392578125,
                0.3271484375,
                -0.192626953125,
                0.086181640625,
                -0.5986328125,
                -0.69189453125,
                -0.28515625,
                0.206298828125,
                -0.1776123046875,
                1.5341796875,
                -0.9306640625,
                -0.219970703125,
                -0.2041015625,
                -0.8779296875,
                -0.02691650390625,
                -0.708984375,
                -0.65185546875,
                -1.388671875,
                0.0562744140625,
                0.11505126953125,
                -0.37060546875,
                0.321044921875,
                -0.60009765625,
                -0.318603515625,
                -0.042205810546875,
                0.560546875,
                0.720703125,
                0.44482421875,
                -0.3076171875,
                -0.5859375,
                -0.1402587890625,
                -0.356201171875,
                0.4873046875,
                -0.64501953125,
                0.071044921875,
                0.418212890625,
                -0.58447265625,
                0.541015625,
                -0.42041015625,
                0.232177734375,
                1.18359375,
                0.11004638671875,
                0.031341552734375,
                -0.552734375,
                -0.10992431640625,
                -0.70166015625,
                0.0936279296875,
                -0.1385498046875,
                0.344482421875,
                -0.81591796875,
                0.162353515625,
                -0.0968017578125,
                0.437255859375,
                -0.291015625,
                1.171875,
                0.11566162109375,
                0.1602783203125,
                0.9013671875,
                -1.0869140625,
                0.242919921875,
                0.94873046875,
                -0.0135955810546875,
                0.351318359375,
                -0.0389404296875,
                0.254150390625,
                0.9794921875,
                0.07843017578125,
                0.326416015625,
                -0.65576171875,
                0.327392578125,
                -1.3056640625,
                -0.25634765625,
                0.51025390625,
                -0.87939453125,
                0.90087890625,
                -0.80908203125,
                0.29345703125,
                -0.07086181640625,
                0.734375,
                0.237548828125,
                0.513671875,
                0.546875,
                -0.2880859375,
                0.1248779296875,
                -0.266845703125,
                -0.337646484375,
                -1.32421875,
                0.552734375,
                -0.029541015625,
                -0.6005859375,
                -0.8818359375,
                0.345458984375,
                -0.83154296875,
                1.1552734375,
                0.84228515625,
                -0.6826171875,
                -0.7587890625,
                0.701171875,
                0.398193359375,
                0.391845703125,
                0.2066650390625,
                -0.001239776611328125,
                -0.6572265625,
                -0.3564453125,
                -0.97802734375,
                0.81787109375,
                -1.1455078125,
                -0.2763671875,
                -0.1617431640625,
                0.94873046875,
                -0.300537109375,
                0.392333984375,
                0.2998046875,
                -0.72998046875,
                0.30126953125,
                -0.0955810546875,
                -0.0188446044921875,
                -0.68310546875
            ],
            "biases": [
                -0.61962890625,
                -0.332275390625,
                0.43115234375,
                -0.25830078125,
                0.2493896484375,
                0.5986328125,
                -0.1378173828125,
                0.4443359375,
                -0.67138671875,
                -0.1458740234375,
                0.333251953125,
                -0.06109619140625,
                -0.56787109375,
                0.12841796875,
                0.39306640625,
                -0.18017578125,
                -0.064453125,
                0.338134765625,
                0.5048828125,
                -0.47705078125,
                -0.08892822265625,
                -0.45849609375,
                -0.67626953125,
                -0.2078857421875,
                -0.0306549072265625,
                0.369140625,
                -0.7421875,
                -0.1707763671875,
                -0.1075439453125,
                -0.125,
                -0.035858154296875,
                0.57373046875
            ]
        },
        {
            "num_inputs": 32,
            "num_outputs": 32,
            "weights": [
                0.9677734375,
                -0.55908203125,
                0.1728515625,
                -0.7236328125,
                -0.76708984375,
                -0.7138671875,
                0.488525390625,
                0.297607421875,
                -0.07501220703125,
                -0.303955078125,
                0.0592041015625,
                0.474609375,
                -0.6259765625,
                0.31982421875,
                -0.172607421875,
                0.6796875,
                -0.552734375,
                -0.89990234375,
                -0.58251953125,
                -0.59814453125,
                -0.6572265625,
                -0.56103515625,
                -0.5732421875,
                -1.05078125,
                -0.43994140625,
                -0.46337890625,
                0.86767578125,
                0.43896484375,
                -0.830078125,
                0.61572265625,
                -0.10479736328125,
                -0.316650390625,
                0.2001953125,
                0.30810546875,
                -0.32177734375,
                0.25,
                0.126708984375,
                -0.278564453125,
                0.6923828125,
                -0.07855224609375,
                -0.9306640625,
                0.2098388671875,
                0.16015625,
                -0.266845703125,
                0.317138671875,
                0.1993408203125,
                0.147705078125,
                0.363037109375,
                -0.2247314453125,
                0.07708740234375,
                0.24365234375,
                0.18212890625,
                0.302490234375,
                0.09051513671875,
                -0.08538818359375,
                -0.1627197265625,
                -0.332275390625,
                0.336181640625,
                -0.58056640625,
                -0.7080078125,
                0.041046142578125,
                0.0290679931640625,
                -0.70751953125,
                -0.61474609375,
                1.1025390625,
                0.93896484375,
                -0.1651611328125,
                -0.023406982421875,
                -0.767578125,
                0.5029296875,
                -0.70068359375,
                -0.03955078125,
                0.08392333984375,
                -0.74609375,
                -0.10504150390625,
                0.161865234375,
                -1.326171875,
                0.160888671875,
                -0.46240234375,
                0.449951171875,
                0.386474609375,
                0.308349609375,
                -0.299560546875,
                0.11181640625,
                -0.1558837890625,
                0.0325927734375,
                0.1385498046875,
                0.453369140625,
                -0.348876953125,
                -0.64599609375,
                -0.92431640625,
                -0.958984375,
                -0.4501953125,
                -0.5927734375,
                -0.548828125,
                0.093017578125,
                0.2021484375,
                0.7119140625,
                -0.087646484375,
                -0.607421875,
                0.56982421875,
                -0.381591796875,
                -0.44287109375,
                -0.685546875,
                -0.09552001953125,
                -0.489990234375,
                -0.058319091796875,
                0.607421875,
                -1.2470703125,
                -0.460205078125,
                -0.81298828125,
                -0.14453125,
                0.37451171875,
                0.7216796875,
                0.291015625,
                -0.389892578125,
                -1.046875,
                -0.35986328125,
                -0.80712890625,
                0.0205078125,
                -1.6083984375,
                -0.97412109375,
                0.323974609375,
                0.326416015625,
                -1.08203125,
                -0.269287109375,
                -0.724609375,
                -0.74267578125,
                0.7431640625,
                0.11468505859375,
                0.31201171875,
                -1.3193359375,
                -0.77294921875,
                -0.71435546875,
                0.619140625,
                0.65185546875,
                0.1773681640625,
                0.142333984375,
                0.25,
                -0.0174407958984375,
                -0.330810546875,
                -0.4150390625,
                -0.439208984375,
                -0.380126953125,
                -0.298095703125,
                -0.72509765625,
                -0.919921875,
                0.05743408203125,
                -1.1455078125,
                0.439208984375,
                -0.321533203125,
                -0.06884765625,
                -0.6787109375,
                -0.365234375,
                0.5908203125,
                0.0810546875,
                -0.99072265625,
                -0.46337890625,
                -0.7392578125,
                -0.0007596015930175781,
                0.035369873046875,
                -0.0860595703125,
                0.1962890625,
                0.1397705078125,
                0.0711669921875,
                0.251953125,
                -0.10260009765625,
                0.0919189453125,
                0.11505126953125,
                0.06549072265625,
                -0.29443359375,
                0.2215576171875,
                0.190673828125,
                0.09576416015625,
                0.1190185546875,
                0.06689453125,
                0.06658935546875,
                0.1280517578125,
                0.136474609375,
                -0.4033203125,
                0.2030029296875,
                0.255615234375,
                0.1927490234375,
                -0.100341796875,
                0.005588531494140625,
                -0.297119140625,
                0.05426025390625,
                0.2193603515625,
                0.266845703125,
                -0.08026123046875,
                -0.198486328125,
                0.2109375,
                0.1343994140625,
                -0.417724609375,
                -0.479248046875,
                0.06951904296875,
                -0.2069091796875,
                0.658203125,
                -1.0966796875,
                -0.2418212890625,
                0.74951171875,
                -0.455078125,
                -0.459228515625,
                -0.1531982421875,
                -0.5234375,
                -0.72607421875,
                0.51708984375,
                0.71923828125,
                0.492431640625,
                0.292236328125,
                -0.67333984375,
                0.083251953125,
                0.1793212890625,
                0.63818359375,
                0.880859375,
                -0.2386474609375,
                -0.05523681640625,
                -0.67041015625,
                0.26025390625,
                0.25927734375,
                0.56201171875,
                -0.4541015625,
                0.195556640625,
                -0.3720703125,
                -0.57568359375,
                -1.435546875,
                -0.255859375,
                0.272216796875,
                0.02593994140625,
                0.0188140869140625,
                -1.0693359375,
                -0.07745361328125,
                0.415283203125,
                -0.515625,
                -0.4091796875,
                0.196533203125,
                -0.078125,
                -0.450439453125,
                0.14599609375,
                1.0498046875,
                0.34326171875,
                0.0906982421875,
                -0.51025390625,
                0.194580078125,
                0.087646484375,
                0.43408203125,
                0.386962890625,
                -0.2010498046875,
                0.1585693359375,
                -1.0810546875,
                0.019744873046875,
                -0.4931640625,
                0.6083984375,
                0.07257080078125,
                0.212646484375,
                -0.372802734375,
                0.9521484375,
                0.6103515625,
                0.59619140625,
                -0.8466796875,
                -0.58251953125,
                -0.8544921875,
                0.389892578125,
                -0.076416015625,
                -0.158935546875,
                -0.05621337890625,
                0.48876953125,
                0.56201171875,
                -0.49951171875,
                0.498046875,
                0.3798828125,
                0.2052001953125,
                -0.77099609375,
                -0.5341796875,
                -0.35498046875,
                -1.0849609375,
                -0.45458984375,
                -0.72021484375,
                0.55908203125,
                -0.62158203125,
                -0.93115234375,
                -0.54296875,
                0.64990234375,
                0.4052734375,
                -0.78173828125,
                0.7294921875,
                -0.65087890625,
                -0.58740234375,
                -0.313720703125,
                -0.1700439453125,
                -0.1856689453125,
                0.024139404296875,
                0.2176513671875,
                0.11883544921875,
                -0.1939697265625,
                -0.1859130859375,
                -0.03424072265625,
                -0.09619140625,
                -0.0224151611328125,
                0.2958984375,
                -0.79345703125,
                0.206787109375,
                -0.23193359375,
                -0.3017578125,
                -0.2279052734375,
                0.0275421142578125,
                0.215576171875,
                0.2125244140625,
                0.1373291015625,
                -0.75439453125,
                -0.040496826171875,
                0.020111083984375,
                -0.370361328125,
                0.159912109375,
                0.247314453125,
                0.23046875,
                0.07720947265625,
                -0.163818359375,
                -0.0159759521484375,
                -0.38818359375,
                -0.58056640625,
                0.044097900390625,
                -0.53955078125,
                -0.036712646484375,
                0.70751953125,
                -1.0859375,
                -1.201171875,
                0.340576171875,
                0.71533203125,
                -0.947265625,
                0.11749267578125,
                0.80029296875,
                -0.2493896484375,
                -0.1707763671875,
                -0.05169677734375,
                -0.72802734375,
                -0.74267578125,
                -1.0625,
                -1.009765625,
                1.017578125,
                -0.19921875,
                0.0154571533203125,
                1.2783203125,
                -1.244140625,
                -0.84130859375,
                -0.99609375,
                -1.6279296875,
                -0.47705078125,
                0.541015625,
                0.40576171875,
                0.54345703125,
                -1.0224609375,
                0.158203125,
                0.306640625,
                -0.329345703125,
                0.1820068359375,
                0.08294677734375,
                -0.245849609375,
                0.4990234375,
                -0.1363525390625,
                -0.8251953125,
                0.158447265625,
                0.140869140625,
                -0.2088623046875,
                0.2734375,
                0.1104736328125,
                0.09674072265625,
                0.462646484375,
                -0.11297607421875,
                0.03759765625,
                0.11932373046875,
                0.1944580078125,
                0.294677734375,
                0.046722412109375,
                -0.1488037109375,
                -0.1539306640625,
                -0.328369140625,
                0.29736328125,
                -0.4365234375,
                -0.62646484375,
                0.033599853515625,
                0.0797119140625,
                -0.6376953125,
                -0.6513671875,
                -0.61767578125,
                -0.058685302734375,
                -0.38720703125,
                0.28857421875,
                0.237060546875,
                0.06298828125,
                -0.33642578125,
                -0.0172576904296875,
                0.25341796875,
                0.07574462890625,
                0.1239013671875,
                0.03680419921875,
                0.0625,
                0.251220703125,
                0.09368896484375,
                0.1575927734375,
                0.054779052734375,
                0.1092529296875,
                0.2476806640625,
                -0.0014085769653320312,
                0.325927734375,
                0.11285400390625,
                -0.51123046875,
                -0.61669921875,
                0.1998291015625,
                0.060546875,
                -0.294189453125,
                0.28076171875,
                0.183349609375,
                0.1502685546875,
                0.352294921875,
                0.10760498046875,
                -0.295654296875,
                -0.1849365234375,
                0.5205078125,
                -1.4755859375,
                -0.0057525634765625,
                -0.29443359375,
                0.1612548828125,
                0.28466796875,
                -0.68505859375,
                0.130126953125,
                -0.1217041015625,
                0.425048828125,
                -0.7685546875,
                0.0726318359375,
                -0.5322265625,
                0.2366943359375,
                -0.54248046875,
                -0.297607421875,
                0.5751953125,
                -0.21875,
                0.025482177734375,
                0.007781982421875,
                0.0181427001953125,
                0.359619140625,
                -1.189453125,
                -0.59033203125,
                -0.1300048828125,
                -1.0693359375,
                0.12939453125,
                -0.027435302734375,
                -0.327880859375,
                -0.1259765625,
                0.299560546875,
                0.0732421875,
                -0.0257415771484375,
                0.309814453125,
                -1.240234375,
                -0.273681640625,
                0.63232421875,
                1.119140625,
                0.0160064697265625,
                0.2138671875,
                -0.73046875,
                0.96142578125,
                -0.310791015625,
                0.059112548828125,
                0.1845703125,
                0.204833984375,
                0.88232421875,
                -0.53857421875,
                -0.168212890625,
                -1.490234375,
                -0.6279296875,
                -1.1484375,
                0.91064453125,
                -1.2890625,
                -0.2196044921875,
                -0.398193359375,
                1.00390625,
                0.039642333984375,
                -0.38818359375,
                -0.462158203125,
                -1.244140625,
                -0.1435546875,
                0.47607421875,
                0.6943359375,
                0.3701171875,
                -1.0986328125,
                -0.450439453125,
                0.11444091796875,
                -0.3701171875,
                0.42041015625,
                0.17919921875,
                -0.36572265625,
                1.017578125,
                0.0011606216430664062,
                -0.036712646484375,
                -0.2041015625,
                0.1092529296875,
                -0.6171875,
                -0.35791015625,
                -0.9912109375,
                -0.160888671875,
                -0.81298828125,
                -0.6064453125,
                -0.2880859375,
                0.82275390625,
                -0.35888671875,
                -0.93896484375,
                -0.935546875,
                1.2568359375,
                -0.431640625,
                -0.136962890625,
                0.007663726806640625,
                -0.2421875,
                -0.78759765625,
                -0.86279296875,
                -1.115234375,
                -0.97607421875,
                0.146728515625,
                -0.051849365234375,
                0.8876953125,
                -1.1591796875,
                -0.492431640625,
                1.08203125,
                -0.85986328125,
                -1.099609375,
                0.638671875,
                -0.369140625,
                -1.0234375,
                0.020843505859375,
                1.666015625,
                -0.51904296875,
                0.0287322998046875,
                -1.1123046875,
                0.37353515625,
                -0.378662109375,
                0.46044921875,
                -0.327880859375,
                -0.7041015625,
                -0.689453125,
                -1.0751953125,
                -0.03143310546875,
                -0.93017578125,
                0.96826171875,
                -0.90478515625,
                -0.8388671875,
                -0.703125,
                0.46044921875,
                -0.040069580078125,
                0.10089111328125,
                -0.41259765625,
                -0.07037353515625,
                0.193359375,
                -0.20849609375,
                -0.2509765625,
                0.189697265625,
                -0.2310791015625,
                -0.061798095703125,
                0.07940673828125,
                -0.5419921875,
                -0.275146484375,
                -0.176025390625,
                0.024627685546875,
                -0.312255859375,
                -0.23583984375,
                0.313232421875,
                -0.11712646484375,
                0.416259765625,
                0.2369384765625,
                0.50390625,
                0.0022106170654296875,
                -0.0767822265625,
                -0.014892578125,
                0.32421875,
                0.11773681640625,
                0.131103515625,
                -0.1524658203125,
                0.2039794921875,
                -0.37255859375,
                -0.1710205078125,
                0.1285400390625,
                -0.10797119140625,
                -0.26025390625,
                0.089111328125,
                0.343994140625,
                -0.162841796875,
                0.05035400390625,
                -0.0831298828125,
                0.11053466796875,
                0.2193603515625,
                0.1024169921875,
                -0.03546142578125,
                0.245849609375,
                0.1068115234375,
                0.3408203125,
                0.1812744140625,
                0.329345703125,
                0.124267578125,
                0.14501953125,
                0.0205078125,
                -0.364501953125,
                -0.62451171875,
                -0.202880859375,
                0.048004150390625,
                0.1239013671875,
                0.3203125,
                0.290771484375,
                0.1578369140625,
                -0.25048828125,
                0.2381591796875,
                0.2509765625,
                0.8828125,
                0.271484375,
                0.7998046875,
                -0.6298828125,
                -1.0771484375,
                0.30712890625,
                0.70068359375,
                0.9775390625,
                -0.6630859375,
                0.50244140625,
                -0.48095703125,
                0.218505859375,
                0.98388671875,
                -0.46337890625,
                -0.5419921875,
                0.0303802490234375,
                0.56005859375,
                -0.50927734375,
                -0.85400390625,
                -0.5068359375,
                -1.3369140625,
                0.4970703125,
                0.462890625,
                0.517578125,
                -0.55859375,
                -0.51953125,
                0.90966796875,
                -0.50634765625,
                -0.258544921875,
                -1.189453125,
                -0.89599609375,
                0.0888671875,
                0.1810302734375,
                -0.5771484375,
                -0.67578125,
                0.1658935546875,
                -0.28271484375,
                0.771484375,
                -1.5068359375,
                -0.367431640625,
                1.0498046875,
                -0.66796875,
                -0.65087890625,
                -0.20166015625,
                -0.73095703125,
                -1.0390625,
                0.681640625,
                0.9853515625,
                0.6708984375,
                0.395263671875,
                -0.97998046875,
                0.14453125,
                0.24462890625,
                0.91796875,
                1.2158203125,
                -0.329345703125,
                -0.053680419921875,
                -1.01953125,
                0.32373046875,
                0.361083984375,
                0.78125,
                -0.501953125,
                0.25439453125,
                -0.5947265625,
                0.0223388671875,
                -0.28173828125,
                0.12744140625,
                -0.1534423828125,
                0.125,
                0.251953125,
                0.257080078125,
                0.2093505859375,
                -0.52783203125,
                0.168212890625,
                -0.42138671875,
                0.249755859375,
                0.2039794921875,
                0.245849609375,
                0.06622314453125,
                0.045318603515625,
                0.1583251953125,
                0.247802734375,
                0.2113037109375,
                0.05316162109375,
                0.08905029296875,
                0.07989501953125,
                0.28173828125,
                0.25,
                0.127197265625,
                0.260498046875,
                -0.414794921875,
                0.25,
                0.1436767578125,
                -0.60205078125,
                -0.39306640625,
                0.1903076171875,
                0.455078125,
                -0.56689453125,
                -0.362548828125,
                0.48681640625,
                0.271240234375,
                -0.11541748046875,
                -0.390869140625,
                0.07293701171875,
                0.8125,
                -0.396484375,
                -0.8125,
                -0.27734375,
                0.498046875,
                -0.60693359375,
                0.46728515625,
                -0.72216796875,
                -0.591796875,
                -0.433349609375,
                -0.853515625,
                -0.1864013671875,
                -0.67578125,
                0.347412109375,
                0.56298828125,
                -0.339599609375,
                0.533203125,
                -0.673828125,
                0.5576171875,
                -0.329345703125,
                -0.525390625,
                -0.1396484375,
                -0.5439453125,
                0.1409912109375,
                0.017333984375,
                -0.034210205078125,
                -0.136962890625,
                -0.031463623046875,
                0.2078857421875,
                0.322509765625,
                -0.59619140625,
                -0.1453857421875,
                -0.017486572265625,
                0.25439453125,
                0.1751708984375,
                -0.0584716796875,
                0.0294952392578125,
                0.2396240234375,
                -0.00421905517578125,
                0.255859375,
                0.162353515625,
                0.1973876953125,
                0.2279052734375,
                -0.056884765625,
                0.29150390625,
                0.2271728515625,
                -0.012451171875,
                0.07244873046875,
                0.25,
                -0.11572265625,
                0.020355224609375,
                0.2313232421875,
                0.25634765625,
                -0.37109375,
                -0.1767578125,
                0.098876953125,
                0.2021484375,
                0.315673828125,
                -0.5712890625,
                -0.1920166015625,
                0.3046875,
                0.334228515625,
                -0.59130859375,
                -0.5302734375,
                -0.0772705078125,
                -0.4609375,
                0.1473388671875,
                0.054290771484375,
                0.1287841796875,
                0.2064208984375,
                -0.388916015625,
                0.57666015625,
                -0.7216796875,
                -0.01416015625,
                0.1103515625,
                0.173583984375,
                0.57861328125,
                0.0121612548828125,
                0.5029296875,
                -0.04742431640625,
                -0.53173828125,
                0.047271728515625,
                -0.49755859375,
                -0.26611328125,
                0.098876953125,
                0.1708984375,
                -0.61474609375,
                -0.7099609375,
                -0.53759765625,
                -0.418212890625,
                0.241943359375,
                0.2493896484375,
                0.326171875,
                0.20263671875,
                0.3720703125,
                0.2301025390625,
                0.1868896484375,
                -0.25341796875,
                -0.6591796875,
                0.328857421875,
                0.265625,
                0.07373046875,
                0.290283203125,
                -0.4345703125,
                -0.293212890625,
                0.1640625,
                0.125,
                0.12139892578125,
                0.2415771484375,
                0.299560546875,
                -0.003986358642578125,
                -0.350341796875,
                0.24560546875,
                0.1995849609375,
                -0.51953125,
                0.294921875,
                -0.031280517578125,
                0.11077880859375,
                0.327392578125,
                0.273681640625,
                0.69287109375,
                0.57861328125,
                -0.10540771484375,
                -0.01279449462890625,
                -0.515625,
                0.3359375,
                -0.466796875,
                -0.058349609375,
                0.0307464599609375,
                -0.425048828125,
                -0.084716796875,
                0.1475830078125,
                -0.7646484375,
                0.122314453125,
                -0.291015625,
                0.31298828125,
                0.340087890625,
                0.18896484375,
                -0.253662109375,
                0.10546875,
                -0.11773681640625,
                0.028533935546875,
                0.09942626953125,
                0.2425537109375,
                -0.2447509765625,
                -0.404541015625,
                -0.56982421875,
                -0.88671875,
                -0.2666015625,
                -0.400634765625,
                -0.391357421875,
                0.059539794921875,
                0.240234375,
                0.1268310546875,
                -0.84521484375,
                0.232421875,
                0.232666015625,
                -0.4189453125,
                0.42041015625,
                -0.117431640625,
                -0.68994140625,
                -0.515625,
                0.15869140625,
                -0.8291015625,
                -0.87646484375,
                -1.1220703125,
                0.433349609375,
                -0.62109375,
                0.31005859375,
                -0.005817413330078125,
                0.2191162109375,
                0.0165863037109375,
                -0.53076171875,
                0.12841796875,
                -0.64208984375,
                0.4521484375,
                -1.107421875,
                -0.568359375,
                -0.1253662109375,
                0.75048828125,
                0.25,
                0.75439453125,
                -0.1536865234375,
                -1.224609375,
                0.03631591796875,
                -0.7236328125,
                -0.4951171875,
                -0.59228515625,
                0.51513671875,
                -1.1650390625,
                0.280517578125,
                -0.615234375,
                0.5771484375,
                -0.85302734375,
                -0.049346923828125,
                -0.0010366439819335938,
                -0.256591796875,
                -0.2352294921875,
                -0.97509765625,
                0.08258056640625,
                0.2734375,
                0.057861328125,
                -0.11932373046875,
                0.2386474609375,
                -0.25146484375,
                0.14990234375,
                -0.72900390625,
                -0.302734375,
                -1.1103515625,
                -0.1561279296875,
                -0.37451171875,
                -0.01345062255859375,
                -0.546875,
                0.64453125,
                0.34326171875,
                0.4091796875,
                -0.5537109375,
                -0.481201171875,
                -1.4599609375,
                0.212646484375,
                -0.63623046875,
                -1.4765625,
                0.88916015625,
                -0.301025390625,
                -1.6337890625,
                1.7109375,
                -0.00838470458984375,
                -2.044921875,
                0.1292724609375,
                -0.045989990234375,
                0.52685546875,
                -0.65283203125,
                -1.0634765625,
                -1.2861328125,
                0.84619140625,
                -1.044921875,
                0.10601806640625,
                1.0302734375,
                0.52734375,
                0.65185546875,
                0.67919921875,
                0.81640625,
                -0.248291015625,
                -1.2392578125,
                -1.3408203125,
                0.367919921875,
                -2.185546875,
                -0.93017578125,
                0.047271728515625,
                0.2479248046875,
                -0.435302734375,
                -0.045654296875,
                0.32958984375,
                0.1395263671875,
                -0.2332763671875,
                -0.32763671875,
                -0.1309814453125,
                -0.28466796875,
                0.18603515625,
                -0.0009145736694335938,
                0.2137451171875,
                0.310791015625,
                -0.28466796875,
                0.342529296875,
                -0.61669921875,
                0.036590576171875,
                0.2059326171875,
                0.236328125,
                0.465576171875,
                0.0040130615234375,
                0.33984375,
                -0.1622314453125,
                -0.4462890625,
                0.066650390625,
                -0.6181640625,
                -0.34619140625,
                0.056365966796875,
                0.161376953125,
                -0.568359375,
                -0.47998046875,
                0.1051025390625,
                0.10784912109375,
                -0.0025882720947265625,
                0.3828125,
                0.285400390625,
                0.495361328125,
                -0.375244140625,
                -0.41455078125,
                0.417724609375,
                -0.098388671875,
                0.2213134765625,
                0.12548828125,
                0.0306854248046875,
                0.1512451171875,
                -0.58447265625,
                0.27294921875,
                0.3349609375,
                0.41845703125,
                0.1923828125,
                0.256591796875,
                0.2369384765625,
                0.183837890625,
                -0.52001953125,
                0.1715087890625,
                0.320068359375,
                0.273193359375,
                -0.40234375,
                0.332275390625,
                0.19140625,
                -0.356201171875,
                0.1448974609375,
                0.2286376953125
            ],
            "biases": [
                0.1260986328125,
                -0.333984375,
                -0.54541015625,
                0.318359375,
                0.007236480712890625,
                0.201416015625,
                -0.53857421875,
                -0.53271484375,
                0.25048828125,
                -0.315185546875,
                -0.8212890625,
                0.0865478515625,
                0.431884765625,
                -0.50830078125,
                -0.87158203125,
                -0.482177734375,
                -0.595703125,
                -0.4697265625,
                0.060546875,
                -0.60986328125,
                -0.93408203125,
                0.24951171875,
                -0.460693359375,
                0.22998046875,
                0.335693359375,
                0.1278076171875,
                -0.33984375,
                -0.4013671875,
                -0.44677734375,
                -0.9169921875,
                -0.1947021484375,
                -0.42138671875
            ]
        },
        {
            "num_inputs": 32,
            "num_outputs": 3,
            "weights": [
                0.0078277587890625,
                -0.033172607421875,
                -0.048065185546875,
                0.0033092498779296875,
                0.04595947265625,
                -0.0828857421875,
                -4.01953125,
                -1.580078125,
                -0.01155853271484375,
                0.039337158203125,
                -2.150390625,
                0.03558349609375,
                0.07421875,
                0.00334930419921875,
                -0.005779266357421875,
                0.0171051025390625,
                1.22265625,
                0.0131072998046875,
                -0.11761474609375,
                -0.053680419921875,
                2.021484375,
                0.02752685546875,
                0.434326171875,
                0.07720947265625,
                -0.021942138671875,
                -0.0169830322265625,
                0.07867431640625,
                0.001903533935546875,
                -0.0247650146484375,
                -2.501953125,
                0.0240478515625,
                -0.0633544921875,
                0.57666015625,
                -0.1522216796875,
                -0.8076171875,
                0.66357421875,
                0.65625,
                0.02911376953125,
                -0.8896484375,
                -0.1348876953125,
                -1.1435546875,
                0.25,
                -0.50341796875,
                0.1641845703125,
                0.0408935546875,
                -0.44921875,
                -0.90576171875,
                0.74462890625,
                -0.051910400390625,
                0.06640625,
                -0.0279998779296875,
                -1.037109375,
                0.69482421875,
                0.0416259765625,
                0.27783203125,
                -0.052520751953125,
                -0.1295166015625,
                -0.0408935546875,
                1.2978515625,
                -0.669921875,
                -0.66064453125,
                -0.400634765625,
                0.1475830078125,
                -0.01348876953125,
                1.2939453125,
                -0.10711669921875,
                -0.85888671875,
                1.2470703125,
                1.1435546875,
                0.064697265625,
                -0.740234375,
                -0.1043701171875,
                -2.318359375,
                0.2093505859375,
                -0.4267578125,
                0.11328125,
                0.04547119140625,
                -1.21875,
                -1.5029296875,
                1.0947265625,
                -0.0207061767578125,
                0.0538330078125,
                -0.031463623046875,
                -1.84375,
                0.58642578125,
                0.057952880859375,
                -0.230712890625,
                -0.0869140625,
                -0.10272216796875,
                -0.062744140625,
                1.3759765625,
                -1.220703125,
                -1.0419921875,
                -0.3232421875,
                0.12152099609375,
                -0.0250244140625
            ],
            "biases": [
                -0.10528564453125,
                -0.049530029296875,
                -0.07147216796875
            ]
        }
    ]
}